digraph Tree {
node [shape=box, style="filled, rounded", color="black", fontname="helvetica"] ;
edge [fontname="helvetica"] ;
0 [label=<Area &le; 0.265<br/>gini = 0.5<br/>samples = 720<br/>value = [360, 360]<br/>class = Kecimen>, fillcolor="#ffffff"] ;
1 [label=<Eccentricity &le; 0.86<br/>gini = 0.324<br/>samples = 389<br/>value = [79, 310]<br/>class = Besni>, fillcolor="#6bb6ec"] ;
0 -> 1 [labeldistance=2.5, labelangle=45, headlabel="True"] ;
2 [label=<gini = 0.259<br/>samples = 360<br/>value = [55, 305]<br/>class = Besni>, fillcolor="#5dafea"] ;
1 -> 2 ;
3 [label=<gini = 0.285<br/>samples = 29<br/>value = [24, 5]<br/>class = Kecimen>, fillcolor="#ea9b62"] ;
1 -> 3 ;
4 [label=<Area &le; 0.334<br/>gini = 0.256<br/>samples = 331<br/>value = [281, 50]<br/>class = Kecimen>, fillcolor="#ea975c"] ;
0 -> 4 [labeldistance=2.5, labelangle=-45, headlabel="False"] ;
5 [label=<gini = 0.479<br/>samples = 98<br/>value = [59, 39]<br/>class = Kecimen>, fillcolor="#f6d4bc"] ;
4 -> 5 ;
6 [label=<gini = 0.09<br/>samples = 233<br/>value = [222, 11]<br/>class = Kecimen>, fillcolor="#e68743"] ;
4 -> 6 ;
}